/*!
 * The following copyright notice may not be removed under any circumstances.
 * 
 * Copyright:
 * Copyright (c) Mark Simonson, 2005. All rights reserved.
 * 
 * Description:
 * This is a protected webfont and is intended for CSS @font-face use ONLY.
 * Reverse engineering this font is strictly prohibited.
 */
Cufon.registerFont({"w":571,"face":{"font-family":"","font-weight":300,"font-stretch":"normal","units-per-em":"1000","panose-1":"2 0 5 6 3 0 0 2 0 4","ascent":"790","descent":"-210","x-height":"12","bbox":"-97 -884 1055 199","underline-thickness":"20","underline-position":"-113","unicode-range":"U+0020-U+2122"},"glyphs":{" ":{"w":259},"!":{"d":"130,-174r-41,0r-13,-493r67,0xm154,-35v0,23,-21,44,-44,44v-23,0,-44,-21,-44,-44v0,-22,21,-43,44,-43v23,0,44,21,44,43","w":219},"\"":{"d":"94,-677v19,0,38,17,36,36r-21,214r-30,0v-14,-134,-21,-205,-21,-214v0,-20,15,-36,36,-36xm223,-677v21,0,38,16,36,36r-21,214r-30,0v-14,-134,-21,-205,-21,-214v-1,-19,17,-36,36,-36","w":317},"#":{"d":"284,0r-48,0r64,-186r-118,0r-63,186r-47,0r63,-186r-111,0r13,-41r112,0r71,-213r-113,0r12,-41r115,0r61,-186r47,0r-61,186r117,0r61,-186r48,0r-63,186r111,0r-11,41r-113,0r-72,213r116,0r-13,41r-116,0xm312,-227r72,-213r-117,0r-71,213r116,0","w":579},"$":{"d":"529,-177v0,111,-84,185,-210,188r0,89r-46,0r0,-89v-96,-5,-171,-40,-225,-105r37,-43v51,59,114,91,188,96r0,-280v-65,-19,-88,-25,-138,-55v-42,-25,-65,-62,-66,-124v-1,-106,97,-174,204,-177r0,-91r46,0r0,91v81,7,146,38,195,93r-38,42v-39,-47,-92,-75,-157,-82r0,252v63,18,94,29,142,60v42,27,68,69,68,135xm319,-41v90,-4,150,-54,150,-132v0,-37,-13,-65,-39,-84v-26,-19,-62,-36,-111,-51r0,267xm273,-625v-76,2,-144,49,-144,122v0,32,12,56,37,73v25,17,60,32,107,45r0,-240","w":584},"%":{"d":"347,-512v0,91,-66,163,-157,163v-90,0,-156,-73,-156,-163v0,-91,66,-165,156,-165v91,0,157,73,157,165xm173,0r-45,0r426,-667r46,0xm687,-151v0,91,-66,163,-157,163v-91,0,-157,-72,-157,-163v0,-92,66,-165,157,-165v91,0,157,73,157,165xm80,-512v0,65,46,124,110,124v64,0,111,-59,111,-124v0,-67,-45,-126,-111,-126v-65,0,-110,59,-110,126xm419,-151v0,66,46,124,111,124v66,0,110,-58,110,-124v0,-67,-44,-126,-110,-126v-66,0,-111,59,-111,126","w":720},"&":{"d":"295,-677v81,0,141,46,140,126v-1,87,-66,129,-121,163r-52,28v35,50,130,156,175,202v33,-49,58,-103,76,-162r48,20v-31,79,-61,138,-88,178v40,40,83,81,129,122r-78,0v-25,-22,-54,-49,-85,-80v-55,61,-120,92,-196,92v-113,1,-203,-68,-201,-182v0,-48,13,-88,39,-118v26,-30,63,-58,110,-84v-37,-58,-55,-109,-55,-153v0,-86,73,-152,159,-152xm100,-173v-3,84,66,140,147,139v58,0,111,-27,158,-81v-51,-51,-83,-88,-99,-107v-34,-41,-65,-78,-90,-113v-62,40,-113,75,-116,162xm296,-633v-57,0,-104,49,-104,109v0,36,15,78,46,127v48,-25,62,-33,100,-62v28,-22,44,-46,45,-90v1,-52,-36,-84,-87,-84","w":639},"'":{"d":"94,-677v19,0,38,17,36,36r-21,214r-30,0v-14,-134,-21,-205,-21,-214v0,-20,15,-36,36,-36","w":187},"(":{"d":"104,-243v0,182,42,284,106,418r-31,24v-179,-264,-179,-620,0,-884r31,22v-64,136,-106,236,-106,420","w":227},")":{"d":"123,-243v0,182,-42,284,-106,418r31,24v179,-264,179,-620,0,-884r-31,22v64,136,106,236,106,420","w":227},"*":{"d":"186,-399r-37,0r5,-117r-98,64r-19,-33r104,-53r-104,-53r19,-33r98,64r-5,-117r37,0r-6,117r99,-64r19,33r-105,53r105,53r-19,33r-99,-64","w":335},"+":{"d":"467,-316r-196,0r0,217r-45,0r0,-217r-197,0r0,-42r197,0r0,-211r45,0r0,211r196,0r0,42","w":496},",":{"d":"108,-78v31,1,51,29,51,64v-1,57,-35,112,-72,136r-29,-24v27,-17,54,-56,58,-92v-30,6,-51,-14,-51,-41v-1,-22,20,-44,43,-43","w":219},"-":{"d":"270,-218r-240,0r0,-48r240,0r0,48","w":300},".":{"d":"154,-35v0,23,-21,44,-44,44v-23,0,-45,-21,-45,-44v0,-22,22,-43,45,-43v23,0,44,21,44,43","w":219},"\/":{"d":"45,20r-45,0r237,-707r45,0","w":282},"0":{"d":"418,-19v-64,40,-163,40,-227,0v-64,-40,-101,-112,-119,-193v-40,-176,5,-363,118,-434v64,-40,164,-40,228,0v113,72,158,261,119,434v-18,81,-56,153,-119,193xm216,-66v48,34,127,33,176,0v111,-76,122,-328,58,-464v-25,-53,-72,-95,-145,-95v-113,0,-159,90,-177,187v-27,146,-1,309,88,372","w":608},"1":{"d":"225,0r-57,0r0,-589r-107,114r-35,-37r147,-155r52,0r0,667","w":308},"2":{"d":"283,-677v111,0,215,70,210,188v-4,96,-46,154,-104,217v-85,92,-137,133,-244,220r351,0r0,52r-440,0r0,-47r128,-105v82,-72,187,-155,232,-258v13,-27,19,-54,19,-79v3,-87,-70,-136,-152,-136v-83,0,-148,37,-183,87r-39,-36v44,-60,123,-103,222,-103","w":582},"3":{"d":"484,-179v-3,118,-97,191,-225,191v-103,0,-186,-49,-227,-111r39,-34v43,62,106,93,187,93v96,0,168,-50,168,-142v0,-118,-119,-146,-241,-134r0,-54v7,1,27,1,62,1v89,0,169,-39,169,-127v0,-82,-75,-130,-160,-129v-69,0,-128,28,-179,85r-36,-36v55,-67,128,-101,218,-101v114,0,218,64,215,176v-2,89,-65,143,-143,156v74,9,156,74,153,166","w":544},"4":{"d":"408,0r-57,0r0,-182r-316,0r0,-51r296,-434r77,0r0,433r98,0r0,52r-98,0r0,182xm351,-234r0,-376r-257,376r257,0","w":541},"5":{"d":"524,-203v0,127,-101,215,-225,215v-99,0,-174,-36,-225,-109r38,-38v45,63,107,95,187,95v93,0,167,-70,167,-161v0,-98,-70,-164,-166,-163v-61,0,-115,22,-162,65r-43,-18r0,-350r385,0r0,52r-328,0r0,261v43,-41,96,-62,159,-62v120,0,213,86,213,213","w":582},"6":{"d":"527,-201v0,119,-97,217,-224,213v-151,-4,-214,-109,-237,-240v-16,-89,-10,-194,16,-271v31,-93,110,-179,231,-178v75,0,135,28,180,85r-33,41v-52,-74,-157,-100,-238,-49v-81,51,-110,166,-105,299v31,-51,112,-111,195,-111v128,0,215,79,215,211xm302,-361v-82,1,-150,55,-182,114v7,77,31,133,81,173v27,23,61,34,100,34v97,0,167,-74,168,-160v2,-103,-67,-162,-167,-161","w":584},"7":{"d":"185,0r-63,0r280,-615r-369,0r0,-52r437,0r0,40","w":502},"8":{"d":"513,-167v1,112,-108,179,-227,179v-120,0,-228,-67,-227,-179v0,-96,85,-155,166,-177v-77,-22,-153,-69,-155,-161v-2,-112,106,-172,216,-172v109,0,218,61,216,172v-2,91,-78,140,-155,161v82,22,165,81,166,177xm286,-625v-84,0,-161,45,-158,126v3,86,85,115,158,131v72,-17,155,-45,158,-131v3,-80,-74,-126,-158,-126xm117,-171v-3,82,84,131,169,131v83,0,172,-51,169,-131v-3,-94,-89,-130,-169,-147v-80,16,-166,54,-169,147"},"9":{"d":"57,-465v0,-119,97,-217,224,-213v151,4,216,108,237,240v30,189,-15,373,-150,430v-103,43,-217,14,-277,-66r34,-41v53,75,159,100,239,49v82,-52,106,-164,104,-299v-31,51,-113,111,-196,111v-128,0,-215,-79,-215,-211xm115,-466v-2,103,67,162,167,161v82,-1,150,-55,182,-114v-7,-77,-29,-133,-80,-173v-28,-23,-62,-34,-101,-34v-97,0,-167,74,-168,160","w":584},":":{"d":"154,-446v0,22,-21,43,-44,43v-23,0,-45,-21,-45,-43v0,-23,22,-44,45,-44v23,0,44,21,44,44xm154,-35v0,23,-21,44,-44,44v-23,0,-45,-21,-45,-44v0,-22,22,-43,45,-43v23,0,44,21,44,43","w":217},";":{"d":"154,-446v0,22,-21,43,-44,43v-23,0,-45,-21,-45,-43v0,-23,22,-44,45,-44v23,0,44,21,44,44xm108,-79v31,1,51,30,51,65v-1,58,-35,111,-72,135r-29,-24v27,-17,54,-56,58,-92v-30,6,-51,-14,-51,-41v-1,-22,20,-44,43,-43","w":219},"<":{"d":"467,-90r-438,-226r0,-37r438,-227r0,49r-385,197r385,195r0,49","w":496},"=":{"d":"467,-411r-438,0r0,-42r438,0r0,42xm467,-216r-438,0r0,-41r438,0r0,41","w":496},">":{"d":"467,-316r-438,226r0,-49r386,-195r-386,-197r0,-49r438,227r0,37","w":496},"?":{"d":"237,-677v134,0,237,111,170,230v-37,65,-116,87,-162,141v-29,34,-30,79,9,105r-40,25v-47,-36,-53,-95,-21,-144v38,-58,116,-79,155,-136v13,-18,20,-38,20,-61v-1,-67,-59,-108,-134,-108v-73,0,-131,30,-176,90r-36,-37v51,-70,123,-105,215,-105xm267,-35v0,23,-21,44,-44,44v-23,0,-44,-21,-44,-44v0,-22,21,-43,44,-43v23,0,44,21,44,43","w":464},"@":{"d":"67,-245v0,159,128,284,289,284v64,0,126,-19,187,-57r17,25v-65,42,-135,63,-208,63v-176,0,-320,-140,-317,-314v2,-156,95,-281,203,-342v61,-34,125,-52,194,-52v181,0,315,143,315,322v0,72,-15,129,-47,170v-32,41,-70,61,-115,61v-53,0,-88,-41,-89,-91v-32,45,-92,90,-164,91v-92,1,-153,-66,-153,-160v0,-131,116,-255,239,-255v65,0,110,38,130,83r13,-65r49,0r-59,282v-10,41,12,73,48,74v27,0,53,-15,78,-46v25,-31,38,-80,38,-145v0,-164,-121,-289,-286,-289v-186,0,-362,177,-362,361xm231,-247v0,69,43,120,111,120v64,0,119,-33,164,-100r32,-148v-15,-42,-55,-83,-114,-83v-104,0,-193,107,-193,211","w":783},"A":{"d":"632,0r-66,0r-66,-164r-353,0r-66,164r-66,0r273,-667r71,0xm481,-216r-157,-390r-158,390r315,0","w":647},"B":{"d":"554,-180v0,112,-76,180,-191,180r-280,0r0,-667r274,0v108,-2,184,65,184,170v0,78,-54,141,-117,153v68,8,130,87,130,164xm481,-491v0,-73,-53,-124,-131,-124r-210,0r0,247r210,0v78,2,131,-49,131,-123xm494,-184v0,-76,-58,-132,-140,-132r-214,0r0,264r214,0v85,1,140,-49,140,-132","w":615},"C":{"d":"396,-40v85,-1,157,-44,195,-97r49,30v-65,79,-147,119,-244,119v-191,0,-338,-150,-338,-345v0,-196,147,-345,338,-345v100,0,181,39,243,118r-48,31v-38,-53,-109,-97,-195,-97v-159,-2,-278,129,-278,293v0,163,120,295,278,293","w":671},"D":{"d":"633,-333v0,189,-142,333,-337,333r-213,0r0,-667r213,0v194,-5,337,146,337,334xm573,-333v0,-161,-110,-286,-277,-282r-156,0r0,563r156,0v166,4,277,-120,277,-281","w":692},"E":{"d":"506,0r-423,0r0,-667r423,0r0,52r-366,0r0,247r359,0r0,52r-359,0r0,264r366,0r0,52","w":564},"F":{"d":"140,0r-57,0r0,-667r423,0r0,52r-366,0r0,247r359,0r0,52r-359,0r0,316","w":542},"G":{"d":"396,-39v82,0,155,-39,196,-81r0,-160r-252,0r0,-51r309,0r0,233v-66,74,-150,111,-253,111v-190,0,-338,-151,-338,-346v0,-195,148,-345,338,-345v101,0,185,38,251,114r-43,31v-43,-53,-117,-93,-208,-93v-159,-2,-278,129,-278,293v0,163,120,294,278,294","w":711},"H":{"d":"620,0r-57,0r0,-317r-423,0r0,317r-57,0r0,-667r57,0r0,298r423,0r0,-298r57,0r0,667","w":703},"I":{"d":"140,0r-57,0r0,-667r57,0r0,667","w":223},"J":{"d":"387,-193v3,128,-81,205,-202,205v-72,0,-129,-27,-171,-82r35,-44v37,49,81,74,133,74v90,1,148,-64,148,-153r0,-474r57,0r0,474","w":470},"K":{"d":"562,0r-73,0r-275,-314r-74,81r0,233r-57,0r0,-667r57,0r0,365r322,-365r73,0r-284,318","w":586},"L":{"d":"450,0r-381,0r0,-667r58,0r0,615r323,0r0,52","w":484},"M":{"d":"707,0r-58,0r0,-595r-243,595r-22,0r-244,-595r0,595r-57,0r0,-667r85,0r227,555r226,-555r86,0r0,667","w":790},"N":{"d":"616,0r-56,0r-420,-573r0,573r-57,0r0,-667r58,0r418,565r0,-565r57,0r0,667","w":699},"O":{"d":"706,-333v0,192,-133,345,-324,345v-192,0,-324,-152,-324,-345v0,-193,132,-345,324,-345v191,0,324,153,324,345xm118,-333v0,163,104,293,264,293v159,0,264,-130,264,-293v0,-163,-104,-293,-264,-293v-160,0,-264,130,-264,293","w":764},"P":{"d":"534,-472v0,111,-84,195,-201,195r-193,0r0,277r-57,0r0,-667r250,0v118,-3,201,83,201,195xm474,-472v0,-84,-62,-143,-147,-143r-187,0r0,286r187,0v85,2,147,-59,147,-143"},"Q":{"d":"382,-678v191,0,324,153,324,345v0,102,-32,186,-95,251r70,73r-39,36r-71,-73v-53,39,-116,58,-189,58v-192,0,-324,-152,-324,-345v0,-193,132,-345,324,-345xm118,-333v0,163,104,295,264,293v57,0,108,-15,151,-46r-103,-107r40,-37r103,108v49,-56,73,-126,73,-211v0,-163,-104,-293,-264,-293v-160,0,-264,130,-264,293","w":764},"R":{"d":"535,-472v0,113,-80,189,-185,192r193,280r-69,0r-187,-276r-147,0r0,276r-57,0r0,-667r249,0v115,-1,203,78,203,195xm475,-472v0,-84,-63,-143,-148,-143r-187,0r0,287r187,0v85,2,148,-60,148,-144","w":594},"S":{"d":"283,-626v-81,0,-158,47,-156,123v3,84,86,100,157,121v113,34,242,60,243,205v0,51,-19,95,-57,133v-38,38,-98,56,-180,56v-103,0,-185,-35,-244,-106r37,-43v57,65,126,97,209,97v105,0,175,-49,175,-133v0,-126,-146,-128,-243,-163v-80,-28,-156,-61,-157,-164v-2,-110,104,-178,219,-178v97,0,172,31,226,94r-38,42v-47,-56,-110,-84,-191,-84","w":581},"T":{"d":"311,0r-58,0r0,-615r-218,0r0,-52r494,0r0,52r-218,0r0,615","w":564},"U":{"d":"603,-256v0,167,-92,268,-260,268v-167,0,-261,-102,-260,-268r0,-411r58,0r0,410v-1,133,71,217,202,217v131,0,203,-85,202,-217r0,-410r58,0r0,411","w":686},"V":{"d":"359,0r-71,0r-273,-667r66,0r243,603r242,-603r66,0","w":647},"W":{"d":"658,0r-64,0r-160,-573r-160,573r-64,0r-191,-667r64,0r161,587r164,-587r52,0r163,587r161,-587r64,0","w":867},"X":{"d":"626,0r-71,0r-233,-301r-232,301r-71,0r268,-342r-253,-325r72,0r216,283r217,-283r72,0r-253,324","w":645},"Y":{"d":"338,0r-58,0r0,-285r-265,-382r69,0r225,328r225,-328r69,0r-265,382r0,285","w":618},"Z":{"d":"531,0r-481,0r0,-50r402,-565r-402,0r0,-52r474,0r0,49r-402,566r409,0r0,52","w":581},"[":{"d":"211,190r-174,0r0,-868r174,0r0,43r-130,0r0,782r130,0r0,43","w":228},"\\":{"d":"237,20r-237,-707r45,0r237,707r-45,0","w":282},"]":{"d":"191,190r-174,0r0,-43r130,0r0,-782r-130,0r0,-43r174,0r0,868","w":228},"^":{"d":"409,-333r-48,0r-147,-293r-147,293r-48,0r174,-334r42,0","w":428},"_":{"d":"567,83r-570,0r0,-43r570,0r0,43","w":564},"`":{"d":"216,-556r-44,0r-172,-144r62,0","w":216},"\u02cb":{"d":"216,-556r-44,0r-172,-144r62,0","w":216},"a":{"d":"264,-495v102,0,176,52,176,155r0,340r-52,0r0,-57v-42,46,-97,69,-164,69v-89,1,-169,-67,-169,-161v0,-96,78,-160,169,-160v68,0,123,23,164,69r0,-98v1,-70,-58,-112,-129,-111v-60,0,-111,24,-152,71r-29,-36v50,-54,112,-81,186,-81xm110,-148v0,71,58,119,132,119v63,0,112,-22,146,-66r0,-106v-34,-45,-83,-67,-146,-67v-74,0,-132,49,-132,120","w":521},"b":{"d":"292,-448v-67,0,-134,45,-159,88r0,239v26,44,91,86,159,86v109,0,169,-94,169,-206v0,-114,-60,-207,-169,-207xm301,12v-75,0,-136,-42,-168,-89r0,77r-52,0r0,-667r52,0r0,262v43,-60,99,-90,168,-90v135,-1,216,111,216,254v0,143,-81,253,-216,253"},"c":{"d":"109,-242v0,113,70,209,182,207v55,0,99,-23,132,-68r36,32v-43,55,-100,83,-171,83v-138,0,-234,-115,-234,-254v0,-139,96,-253,234,-253v71,0,128,27,171,82r-36,32v-33,-45,-77,-67,-132,-67v-112,-2,-182,93,-182,206","w":494},"d":{"d":"269,-495v76,1,134,40,168,90r0,-262r53,0r0,667r-53,0r0,-77v-32,47,-93,89,-168,89v-135,1,-215,-110,-215,-253v0,-141,81,-255,215,-254xm109,-241v0,112,61,206,169,206v68,0,133,-42,159,-86r0,-239v-26,-45,-91,-88,-159,-88v-108,0,-169,95,-169,207"},"e":{"d":"110,-225v4,106,78,192,189,192v64,0,117,-22,158,-67r27,34v-50,52,-113,78,-189,78v-141,0,-241,-110,-241,-254v0,-135,99,-253,232,-253v146,0,234,118,228,270r-404,0xm461,-266v-2,-95,-70,-184,-176,-184v-102,0,-172,91,-175,184r351,0","w":567},"f":{"d":"98,-527v-1,-88,47,-150,131,-150v35,0,66,11,92,34r-25,38v-18,-17,-39,-25,-62,-25v-55,0,-83,34,-83,103r0,44r98,0r0,46r-98,0r0,437r-53,0r0,-437r-80,0r0,-46r80,0r0,-44","w":265},"g":{"d":"490,-4v3,136,-87,200,-217,200v-96,0,-139,-21,-191,-73r30,-42v40,46,80,68,161,68v96,0,166,-53,164,-153r0,-77v-32,48,-93,91,-168,91v-135,0,-215,-109,-215,-252v0,-142,81,-253,215,-253v69,0,125,30,168,90r0,-78r53,0r0,479xm109,-242v0,112,61,205,169,205v68,0,134,-43,159,-88r0,-235v-26,-45,-91,-88,-159,-88v-108,0,-169,94,-169,206","w":570},"h":{"d":"133,-410v34,-40,104,-85,174,-85v101,0,152,52,152,155r0,340r-52,0r0,-329v1,-85,-37,-118,-117,-119v-65,-1,-130,42,-157,83r0,365r-52,0r0,-667r52,0r0,257","w":540},"i":{"d":"147,-599v1,22,-18,40,-40,40v-21,0,-40,-19,-40,-40v0,-21,19,-39,40,-39v22,0,40,18,40,39xm133,0r-52,0r0,-483r52,0r0,483","w":214},"j":{"d":"147,-599v1,22,-18,40,-40,40v-21,0,-40,-19,-40,-40v0,-21,19,-39,40,-39v22,0,40,18,40,39xm133,61v1,87,-46,135,-131,135v-37,0,-70,-12,-99,-37r23,-43v51,60,155,36,155,-55r0,-544r52,0r0,544","w":214},"k":{"d":"486,0r-70,0r-193,-230r-90,85r0,145r-52,0r0,-667r52,0r0,460r284,-276r70,0r-225,218","w":505},"l":{"d":"133,0r-52,0r0,-667r52,0r0,667","w":214},"m":{"d":"416,-404v25,-43,93,-92,160,-91v88,0,132,49,132,147r0,348r-52,0r0,-338v0,-73,-32,-110,-97,-110v-56,0,-116,43,-138,82r0,366r-53,0r0,-338v0,-73,-32,-110,-96,-110v-57,1,-114,45,-139,83r0,365r-52,0r0,-483r52,0r0,73v22,-36,96,-85,156,-85v69,0,113,39,127,91","w":789},"n":{"d":"133,-410v34,-40,104,-85,174,-85v101,0,152,52,152,157r0,338r-52,0r0,-327v1,-85,-37,-120,-117,-121v-65,0,-130,42,-157,83r0,365r-52,0r0,-483r52,0r0,73","w":540},"o":{"d":"518,-242v0,139,-94,254,-233,254v-138,0,-231,-115,-231,-254v0,-139,93,-253,231,-253v139,0,233,114,233,253xm109,-242v0,108,68,207,176,207v110,0,177,-97,177,-207v0,-109,-68,-206,-177,-206v-108,0,-176,98,-176,206"},"p":{"d":"517,-242v0,143,-81,254,-216,254v-69,0,-125,-30,-168,-90r0,262r-52,0r0,-667r52,0r0,76v32,-47,93,-88,168,-88v135,0,216,109,216,253xm133,-123v25,44,92,88,159,88v109,0,169,-94,169,-207v0,-113,-60,-206,-169,-206v-68,0,-133,42,-159,86r0,239","w":567},"q":{"d":"106,-242v0,114,60,207,169,207v67,0,134,-45,159,-88r0,-239v-26,-44,-91,-86,-159,-86v-109,0,-169,94,-169,206xm266,-495v75,0,136,41,168,88r0,-76r52,0r0,667r-52,0r0,-262v-43,60,-99,90,-168,90v-135,1,-216,-111,-216,-254v0,-144,80,-253,216,-253","w":567},"r":{"d":"296,-436v-69,-14,-140,42,-163,84r0,352r-52,0r0,-483r52,0r0,83v47,-62,102,-93,163,-93r0,57","w":317},"s":{"d":"406,-130v0,92,-78,142,-181,142v-79,0,-141,-26,-186,-77r31,-38v31,39,88,71,156,71v70,0,129,-35,129,-98v0,-55,-58,-75,-107,-88v-87,-21,-198,-38,-198,-143v0,-83,78,-134,172,-134v73,0,130,24,173,71r-29,37v-31,-43,-79,-64,-144,-64v-64,0,-120,31,-120,88v0,52,60,69,108,81v90,22,196,43,196,152","w":459},"t":{"d":"186,12v-63,0,-95,-35,-95,-105r0,-344r-80,0r0,-46r80,0r0,-132r53,0r0,132r98,0r0,46r-98,0r0,336v0,44,17,66,50,66v22,0,40,-8,54,-23r20,40v-21,20,-49,30,-82,30","w":275},"u":{"d":"250,-35v65,1,129,-40,157,-80r0,-368r52,0r0,483r-52,0r0,-71v-38,42,-100,83,-174,83v-101,0,-152,-52,-152,-155r0,-340r52,0r0,328v-1,86,37,119,117,120","w":540},"v":{"d":"270,0r-59,0r-204,-483r58,0r176,422r174,-422r59,0","w":481},"w":{"d":"545,0r-50,0r-135,-413r-136,413r-50,0r-157,-483r56,0r128,410r136,-410r45,0r136,410r128,-410r56,0","w":719},"x":{"d":"462,0r-62,0r-160,-213r-161,213r-62,0r191,-248r-180,-235r62,0r150,199r149,-199r62,0r-180,235","w":479},"y":{"d":"49,189r9,-48v25,11,64,12,84,-5v32,-27,49,-91,70,-132r-205,-487r58,0r176,422r174,-422r59,0r-250,589v-31,77,-91,104,-175,83","w":481},"z":{"d":"413,0r-357,0r0,-43r286,-394r-286,0r0,-46r353,0r0,42r-289,395r293,0r0,46","w":469},"{":{"d":"102,66v-1,43,29,81,68,81r62,0r0,43r-62,0v-61,0,-112,-57,-112,-124r0,-219v0,-37,-17,-71,-52,-71r0,-40v35,0,52,-35,52,-71r0,-219v-3,-66,51,-124,112,-124r62,0r0,43r-62,0v-39,0,-68,39,-68,81r0,222v0,46,-15,75,-45,88v30,13,45,42,45,88r0,222","w":249},"|":{"d":"126,20r-43,0r0,-707r43,0r0,707","w":208},"}":{"d":"191,66v3,67,-51,124,-112,124r-62,0r0,-43r62,0v39,0,67,-39,67,-81r0,-222v0,-45,15,-75,45,-88v-30,-13,-45,-43,-45,-88r0,-222v1,-42,-28,-81,-67,-81r-62,0r0,-43r62,0v61,0,112,58,112,124r0,219v0,37,17,71,52,71r0,40v-35,0,-52,35,-52,71r0,219","w":249},"~":{"d":"429,-667r43,5v-7,65,-15,112,-36,162v-18,41,-45,72,-98,72v-99,0,-94,-119,-138,-176v-10,-13,-24,-20,-39,-20v-48,0,-78,66,-90,198r-43,-7v14,-155,58,-232,133,-232v99,0,95,119,139,177v10,14,23,20,38,20v48,0,78,-66,91,-199","w":499},"\u00a0":{"w":259},"\u00a1":{"d":"76,184r13,-493r41,0r13,493r-67,0xm109,-405v-23,0,-44,-21,-44,-44v0,-22,21,-43,44,-43v23,0,44,21,44,43v0,23,-21,44,-44,44","w":219},"\u00a2":{"d":"54,-242v0,-131,84,-240,203,-251r0,-72r44,0r0,70v63,3,116,30,158,82r-36,32v-31,-41,-71,-64,-122,-67r0,413v49,-2,90,-25,122,-68r36,32v-41,53,-93,80,-158,83r0,88r-44,0r0,-90v-120,-12,-203,-120,-203,-252xm257,-445v-90,15,-148,98,-148,203v0,104,58,190,148,204r0,-407","w":494},"\u00a3":{"d":"368,-39v38,0,84,-21,100,-41r27,47v-52,51,-148,60,-222,23v-81,-40,-116,-27,-204,17r-22,-48v46,-20,81,-44,105,-73v38,-46,49,-96,21,-153r-155,0r0,-42r125,0v-42,-48,-92,-88,-93,-176v-2,-108,102,-192,216,-192v87,0,159,46,188,108r-46,29v-18,-44,-75,-87,-138,-87v-87,0,-160,56,-159,143v1,84,60,127,95,175r151,0r0,42r-126,0v27,84,-3,141,-71,193v17,-6,35,-9,54,-9v41,0,116,44,154,44","w":504},"\u00a4":{"d":"486,-137r-29,29r-56,-57v-76,68,-204,68,-280,0r-57,57r-28,-29r56,-56v-67,-81,-67,-201,0,-280r-56,-57r28,-28r57,56v76,-67,203,-67,280,0r56,-56r29,28r-56,57v67,79,67,200,0,280xm261,-162v92,0,171,-79,171,-171v0,-92,-79,-171,-171,-171v-92,0,-171,79,-171,171v0,92,79,171,171,171","w":522},"\u00a5":{"d":"338,0r-58,0r0,-126r-258,0r0,-41r258,0r0,-118r-258,0r0,-42r229,0r-236,-340r69,0r225,328r225,-328r69,0r-236,340r230,0r0,42r-259,0r0,118r259,0r0,41r-259,0r0,126","w":618},"\u00a6":{"d":"126,20r-43,0r0,-316r43,0r0,316xm126,-371r-43,0r0,-316r43,0r0,316","w":208},"\u00a7":{"d":"223,-636v-64,0,-121,32,-121,92v0,53,59,71,108,82v91,21,195,42,196,152v0,57,-32,100,-96,127v64,24,96,64,96,121v0,95,-81,143,-181,143v-75,0,-137,-26,-186,-77r31,-36v39,48,90,72,155,72v70,1,130,-34,130,-100v0,-90,-122,-90,-197,-115v-54,-18,-109,-51,-108,-119v1,-75,58,-114,123,-129v-68,-22,-123,-45,-123,-122v0,-83,77,-132,172,-132v75,0,132,24,172,72r-28,33v-33,-43,-80,-64,-143,-64xm354,-307v0,-70,-67,-82,-125,-100v-47,12,-79,28,-99,45v-32,27,-40,88,-4,114v38,27,80,36,135,50v62,-27,93,-63,93,-109","w":461},"\u00a8":{"d":"233,-638v19,0,37,18,37,37v0,19,-18,37,-37,37v-19,0,-37,-18,-37,-37v0,-19,18,-37,37,-37xm29,-638v19,0,37,18,37,37v0,19,-18,37,-37,37v-19,0,-37,-18,-37,-37v0,-19,18,-37,37,-37","w":262},"\u00a9":{"d":"389,-679v186,0,345,160,345,345v0,186,-160,345,-345,345v-185,0,-345,-161,-345,-345v0,-186,160,-345,345,-345xm389,-17v170,0,317,-147,317,-317v0,-170,-147,-317,-317,-317v-170,0,-317,147,-317,317v0,169,148,317,317,317xm390,-150v51,0,101,-26,123,-58r22,22v-38,44,-86,66,-145,66v-115,0,-208,-99,-208,-216v0,-117,93,-213,208,-213v60,0,108,22,145,65r-22,22v-22,-32,-72,-57,-123,-57v-96,-1,-175,82,-175,184v0,100,80,187,175,185","w":778},"\u00aa":{"d":"188,-648v70,0,122,34,122,105r0,217r-42,0r0,-37v-28,30,-65,45,-110,45v-59,1,-112,-43,-112,-105v0,-62,53,-103,112,-103v45,0,82,15,110,44r0,-61v1,-44,-41,-70,-85,-70v-41,0,-75,16,-100,48r-22,-28v34,-37,76,-55,127,-55xm89,-423v0,45,39,76,85,75v41,0,72,-14,94,-42r0,-65v-21,-27,-53,-41,-94,-41v-46,-1,-85,29,-85,73","w":375},"\u00ab":{"d":"372,-63r-57,0r-160,-180r160,-177r57,0r-160,177xm247,-63r-57,0r-160,-180r160,-177r57,0r-160,177","w":402},"\u00ac":{"d":"467,-453r0,237r-43,0r0,-195r-395,0r0,-42r438,0","w":499},"\u00ad":{"d":"270,-218r-240,0r0,-48r240,0r0,48","w":300},"\u00ae":{"d":"247,-677v116,0,212,96,212,212v0,114,-98,212,-212,212v-114,0,-212,-98,-212,-212v0,-114,98,-212,212,-212xm247,-280v98,0,185,-87,185,-185v0,-100,-85,-185,-185,-185v-100,0,-185,85,-185,185v0,98,87,185,185,185xm341,-512v0,39,-34,70,-62,72r65,97r-38,0r-63,-96r-46,0r0,96r-30,0r0,-243r99,0v42,-1,75,31,75,74xm266,-468v21,1,44,-22,44,-44v0,-24,-21,-46,-44,-46r-69,0r0,90r69,0","w":494},"\u00af":{"d":"363,-591r-363,0r0,-38r363,0r0,38","w":363},"\u203e":{"d":"363,-591r-363,0r0,-38r363,0r0,38","w":363},"\u00b0":{"d":"140,-677v63,0,117,54,117,117v0,63,-54,115,-117,115v-62,0,-115,-53,-115,-115v0,-62,53,-117,115,-117xm140,-484v41,0,78,-35,78,-76v0,-41,-37,-78,-78,-78v-41,0,-76,37,-76,78v0,42,34,76,76,76","w":282},"\u00b1":{"d":"467,-323r-196,0r0,218r-45,0r0,-218r-197,0r0,-41r197,0r0,-212r45,0r0,212r196,0r0,41xm467,0r-438,0r0,-41r438,0r0,41","w":496},"\u00b2":{"d":"195,-827v72,0,136,40,136,115v0,40,-19,80,-55,119v-36,39,-89,84,-158,134r215,0r0,38r-281,0r0,-35v81,-58,140,-106,178,-144v38,-38,57,-75,57,-110v1,-53,-42,-79,-93,-79v-51,0,-89,17,-113,52r-27,-28v32,-41,79,-62,141,-62","w":384},"\u00b3":{"d":"239,-628v46,4,98,43,96,99v-2,73,-64,115,-145,115v-64,0,-119,-27,-144,-65r26,-28v28,37,67,55,117,55v56,1,99,-26,100,-78v1,-70,-76,-85,-148,-78r0,-38v5,1,17,1,38,1v56,0,104,-19,104,-73v0,-47,-47,-72,-96,-71v-43,0,-80,17,-111,50r-25,-27v35,-41,81,-61,139,-61v73,-1,138,37,138,106v0,53,-46,86,-89,93","w":384},"\u00b4":{"d":"216,-700r-172,144r-44,0r154,-144r62,0","w":216},"\u00b5":{"d":"407,-71v-38,42,-100,83,-174,83v-42,0,-75,-8,-100,-25r0,197r-52,0r0,-667r52,0r0,328v-1,86,37,121,117,122v65,1,129,-42,157,-82r0,-368r52,0r0,483r-52,0r0,-71","w":540},"\u03bc":{"d":"407,-71v-38,42,-100,83,-174,83v-42,0,-75,-8,-100,-25r0,197r-52,0r0,-667r52,0r0,328v-1,86,37,121,117,122v65,1,129,-42,157,-82r0,-368r52,0r0,483r-52,0r0,-71","w":540},"\u00b6":{"d":"27,-495v0,-92,80,-172,172,-172r169,0r0,767r-38,0r0,-729r-93,0r0,729r-38,0r0,-423v-92,3,-172,-80,-172,-172","w":449},"\u00b7":{"d":"110,-288v23,0,44,21,44,43v0,23,-21,44,-44,44v-23,0,-44,-21,-44,-44v0,-22,21,-43,44,-43","w":219},"\u2219":{"d":"110,-288v23,0,44,21,44,43v0,23,-21,44,-44,44v-23,0,-44,-21,-44,-44v0,-22,21,-43,44,-43","w":219},"\u00b8":{"d":"198,111v0,49,-49,79,-101,78v-42,0,-74,-10,-97,-29r17,-32v23,19,49,28,79,28v32,1,63,-16,65,-45v3,-47,-60,-50,-81,-22r-27,-16r30,-84r38,0r-26,67v43,-29,103,1,103,55","w":198},"\u00b9":{"d":"154,-421r-46,0r0,-341r-64,69r-27,-29r97,-99r40,0r0,400","w":214},"\u00ba":{"d":"361,-483v0,92,-66,165,-159,165v-92,0,-158,-74,-158,-165v0,-91,66,-165,158,-165v93,0,159,72,159,165xm89,-483v0,70,43,128,113,128v71,0,115,-57,115,-128v0,-70,-45,-127,-115,-127v-70,0,-113,57,-113,127","w":405},"\u00bb":{"d":"247,-243r-160,180r-57,0r160,-180r-160,-177r57,0xm372,-243r-160,180r-57,0r160,-180r-160,-177r57,0","w":402},"\u00bc":{"d":"568,-667r-427,667r-45,0r426,-667r46,0xm701,-107r-60,0r0,107r-44,0r0,-107r-196,0r0,-35r179,-258r61,0r0,256r60,0r0,37xm597,-144r0,-215r-150,215r150,0xm154,-267r-46,0r0,-341r-64,69r-27,-29r97,-99r40,0r0,400","w":742},"\u00bd":{"d":"568,-667r-427,667r-45,0r426,-667r46,0xm592,-406v72,0,136,40,136,115v0,40,-18,80,-54,119v-36,39,-90,84,-159,134r215,0r0,38r-281,0r0,-35v81,-58,141,-107,179,-145v38,-38,56,-74,56,-109v1,-53,-42,-79,-93,-79v-51,0,-89,17,-113,52r-27,-28v32,-41,79,-62,141,-62xm154,-267r-46,0r0,-341r-64,69r-27,-29r97,-99r40,0r0,400","w":781},"\u00be":{"d":"685,-667r-427,667r-45,0r426,-667r46,0xm818,-107r-60,0r0,107r-44,0r0,-107r-196,0r0,-35r179,-258r61,0r0,256r60,0r0,37xm714,-144r0,-215r-150,215r150,0xm239,-474v46,4,98,43,96,99v-2,73,-64,115,-145,115v-64,0,-119,-27,-144,-65r26,-28v28,37,67,55,117,55v56,1,99,-26,100,-78v1,-70,-76,-85,-148,-78r0,-38v5,1,17,1,38,1v56,0,104,-19,104,-73v0,-47,-47,-72,-96,-71v-43,0,-80,17,-111,50r-25,-27v35,-41,81,-61,139,-61v73,-1,138,37,138,106v0,53,-46,86,-89,93","w":859},"\u00bf":{"d":"227,197v-134,0,-237,-112,-170,-231v37,-65,116,-88,162,-142v29,-34,30,-78,-9,-103r40,-25v48,36,54,95,22,144v-38,59,-117,79,-156,136v-13,18,-20,38,-20,61v1,67,60,107,135,107v74,0,132,-30,175,-89r36,37v-51,70,-123,105,-215,105xm197,-448v0,-23,22,-44,45,-44v23,0,44,21,44,44v0,22,-21,43,-44,43v-23,0,-45,-21,-45,-43","w":392},"\u00c0":{"d":"384,-728r-44,0r-172,-144r62,0xm632,0r-66,0r-66,-164r-353,0r-66,164r-66,0r273,-667r71,0xm481,-216r-157,-390r-158,390r315,0","w":647},"\u00c1":{"d":"481,-872r-172,144r-44,0r154,-144r62,0xm632,0r-66,0r-66,-164r-353,0r-66,164r-66,0r273,-667r71,0xm481,-216r-157,-390r-158,390r315,0","w":647},"\u00c2":{"d":"450,-728r-40,0r-86,-113r-84,113r-40,0r97,-144r54,0xm632,0r-66,0r-66,-164r-353,0r-66,164r-66,0r273,-667r71,0xm481,-216r-157,-390r-158,390r315,0","w":647},"\u00c3":{"d":"478,-860v1,70,-29,133,-93,134v-34,1,-60,-28,-71,-51v-9,-20,-28,-51,-54,-51v-41,0,-55,44,-54,96r-35,0v-1,-69,29,-134,93,-134v34,-1,59,28,70,51v9,20,29,51,55,51v41,0,55,-44,54,-96r35,0xm632,0r-66,0r-66,-164r-353,0r-66,164r-66,0r273,-667r71,0xm481,-216r-157,-390r-158,390r315,0","w":647},"\u00c4":{"d":"426,-806v19,0,37,18,37,37v0,19,-18,37,-37,37v-19,0,-37,-18,-37,-37v0,-19,18,-37,37,-37xm222,-806v19,0,37,18,37,37v0,19,-18,37,-37,37v-19,0,-37,-18,-37,-37v0,-19,18,-37,37,-37xm632,0r-66,0r-66,-164r-353,0r-66,164r-66,0r273,-667r71,0xm481,-216r-157,-390r-158,390r315,0","w":647},"\u00c5":{"d":"420,-788v0,50,-44,96,-95,96v-52,0,-96,-45,-96,-96v0,-52,44,-96,96,-96v51,0,95,45,95,96xm261,-788v0,34,30,64,64,64v34,0,63,-30,63,-64v0,-34,-29,-64,-63,-64v-34,0,-64,30,-64,64xm632,0r-66,0r-66,-164r-353,0r-66,164r-66,0r273,-667r71,0xm481,-216r-157,-390r-158,390r315,0","w":647},"\u00c6":{"d":"879,0r-423,0r0,-164r-274,0r-102,164r-66,0r421,-667r444,0r0,52r-365,0r0,247r358,0r0,52r-358,0r0,264r365,0r0,52xm456,-216r0,-390r-245,390r245,0","w":939},"\u00c7":{"d":"491,107v0,49,-49,79,-101,78v-42,0,-74,-10,-97,-29r17,-32v23,19,49,28,79,28v32,1,63,-16,65,-45v3,-47,-60,-50,-81,-22r-27,-16r21,-58v-175,-10,-309,-155,-309,-344v0,-196,147,-345,338,-345v100,0,181,39,243,118r-48,31v-38,-53,-109,-97,-195,-97v-159,-2,-278,129,-278,293v0,163,120,295,278,293v85,-1,157,-44,195,-97r49,30v-63,77,-142,117,-237,119r-15,40v43,-29,103,1,103,55","w":671},"\u00c8":{"d":"354,-728r-44,0r-172,-144r62,0xm506,0r-423,0r0,-667r423,0r0,52r-366,0r0,247r359,0r0,52r-359,0r0,264r366,0r0,52","w":564},"\u00c9":{"d":"451,-872r-172,144r-44,0r154,-144r62,0xm506,0r-423,0r0,-667r423,0r0,52r-366,0r0,247r359,0r0,52r-359,0r0,264r366,0r0,52","w":564},"\u00ca":{"d":"418,-728r-40,0r-86,-113r-84,113r-40,0r97,-144r54,0xm506,0r-423,0r0,-667r423,0r0,52r-366,0r0,247r359,0r0,52r-359,0r0,264r366,0r0,52","w":564},"\u00cb":{"d":"395,-806v19,0,37,18,37,37v0,19,-18,37,-37,37v-19,0,-37,-18,-37,-37v0,-19,18,-37,37,-37xm191,-806v19,0,37,18,37,37v0,19,-18,37,-37,37v-19,0,-37,-18,-37,-37v0,-19,18,-37,37,-37xm506,0r-423,0r0,-667r423,0r0,52r-366,0r0,247r359,0r0,52r-359,0r0,264r366,0r0,52","w":564},"\u00cc":{"d":"172,-728r-44,0r-172,-144r62,0xm140,0r-57,0r0,-667r57,0r0,667","w":223},"\u00cd":{"d":"269,-872r-172,144r-44,0r154,-144r62,0xm140,0r-57,0r0,-667r57,0r0,667","w":223},"\u00ce":{"d":"238,-728r-40,0r-86,-113r-84,113r-40,0r97,-144r54,0xm140,0r-57,0r0,-667r57,0r0,667","w":223},"\u00cf":{"d":"214,-806v19,0,37,18,37,37v0,19,-18,37,-37,37v-19,0,-37,-18,-37,-37v0,-19,18,-37,37,-37xm10,-806v19,0,37,18,37,37v0,19,-18,37,-37,37v-19,0,-37,-18,-37,-37v0,-19,18,-37,37,-37xm140,0r-57,0r0,-667r57,0r0,667","w":223},"\u00d0":{"d":"662,-333v0,189,-142,333,-337,333r-213,0r0,-308r-101,0r0,-46r101,0r0,-313r213,0v194,-5,337,146,337,334xm602,-333v0,-161,-110,-286,-277,-282r-156,0r0,261r180,0r0,46r-180,0r0,256r156,0v166,4,277,-120,277,-281","w":721},"\u00d1":{"d":"501,-860v1,70,-29,133,-93,134v-34,1,-59,-28,-70,-51v-9,-20,-29,-51,-55,-51v-41,0,-55,44,-54,96r-35,0v-1,-69,29,-134,93,-134v34,-1,60,28,71,51v9,20,28,51,54,51v41,0,55,-44,54,-96r35,0xm616,0r-56,0r-420,-573r0,573r-57,0r0,-667r58,0r418,565r0,-565r57,0r0,667","w":699},"\u00d2":{"d":"446,-728r-44,0r-172,-144r62,0xm706,-333v0,192,-133,345,-324,345v-192,0,-324,-152,-324,-345v0,-193,132,-345,324,-345v191,0,324,153,324,345xm118,-333v0,163,104,293,264,293v159,0,264,-130,264,-293v0,-163,-104,-293,-264,-293v-160,0,-264,130,-264,293","w":764},"\u00d3":{"d":"540,-872r-172,144r-44,0r154,-144r62,0xm706,-333v0,192,-133,345,-324,345v-192,0,-324,-152,-324,-345v0,-193,132,-345,324,-345v191,0,324,153,324,345xm118,-333v0,163,104,293,264,293v159,0,264,-130,264,-293v0,-163,-104,-293,-264,-293v-160,0,-264,130,-264,293","w":764},"\u00d4":{"d":"509,-728r-40,0r-86,-113r-84,113r-40,0r97,-144r54,0xm706,-333v0,192,-133,345,-324,345v-192,0,-324,-152,-324,-345v0,-193,132,-345,324,-345v191,0,324,153,324,345xm118,-333v0,163,104,293,264,293v159,0,264,-130,264,-293v0,-163,-104,-293,-264,-293v-160,0,-264,130,-264,293","w":764},"\u00d5":{"d":"536,-860v1,70,-29,133,-93,134v-34,1,-60,-28,-71,-51v-9,-20,-28,-51,-54,-51v-41,0,-55,44,-54,96r-35,0v-1,-69,29,-134,93,-134v34,-1,59,28,70,51v9,20,29,51,55,51v41,0,55,-44,54,-96r35,0xm706,-333v0,192,-133,345,-324,345v-192,0,-324,-152,-324,-345v0,-193,132,-345,324,-345v191,0,324,153,324,345xm118,-333v0,163,104,293,264,293v159,0,264,-130,264,-293v0,-163,-104,-293,-264,-293v-160,0,-264,130,-264,293","w":764},"\u00d6":{"d":"483,-806v19,0,37,18,37,37v0,19,-18,37,-37,37v-19,0,-37,-18,-37,-37v0,-19,18,-37,37,-37xm279,-806v19,0,37,18,37,37v0,19,-18,37,-37,37v-19,0,-37,-18,-37,-37v0,-19,18,-37,37,-37xm706,-333v0,192,-133,345,-324,345v-192,0,-324,-152,-324,-345v0,-193,132,-345,324,-345v191,0,324,153,324,345xm118,-333v0,163,104,293,264,293v159,0,264,-130,264,-293v0,-163,-104,-293,-264,-293v-160,0,-264,130,-264,293","w":764},"\u00d7":{"d":"400,-153r-152,-152r-151,152r-30,-29r152,-152r-152,-152r30,-29r151,152r152,-152r29,29r-152,152r152,152","w":496},"\u00d8":{"d":"706,-333v2,192,-133,345,-324,345v-62,0,-118,-15,-168,-44r-20,32r-51,0r36,-56v-72,-57,-120,-154,-121,-277v-2,-193,132,-345,324,-345v59,0,114,14,164,43r20,-32r52,0r-36,56v73,57,122,155,124,278xm382,-40v159,2,264,-130,264,-293v0,-100,-31,-177,-94,-231r-309,486v41,25,88,38,139,38xm382,-626v-160,-3,-264,130,-264,293v0,98,30,174,91,229r308,-486v-39,-24,-84,-36,-135,-36","w":764},"\u00d9":{"d":"405,-728r-44,0r-172,-144r62,0xm603,-256v0,167,-92,268,-260,268v-167,0,-261,-102,-260,-268r0,-411r58,0r0,410v-1,133,71,217,202,217v131,0,203,-85,202,-217r0,-410r58,0r0,411","w":686},"\u00da":{"d":"499,-872r-172,144r-44,0r154,-144r62,0xm603,-256v0,167,-92,268,-260,268v-167,0,-261,-102,-260,-268r0,-411r58,0r0,410v-1,133,71,217,202,217v131,0,203,-85,202,-217r0,-410r58,0r0,411","w":686},"\u00db":{"d":"472,-728r-40,0r-86,-113r-84,113r-40,0r97,-144r54,0xm603,-256v0,167,-92,268,-260,268v-167,0,-261,-102,-260,-268r0,-411r58,0r0,410v-1,133,71,217,202,217v131,0,203,-85,202,-217r0,-410r58,0r0,411","w":686},"\u00dc":{"d":"446,-806v19,0,37,18,37,37v0,19,-18,37,-37,37v-19,0,-37,-18,-37,-37v0,-19,18,-37,37,-37xm242,-806v19,0,37,18,37,37v0,19,-18,37,-37,37v-19,0,-37,-18,-37,-37v0,-19,18,-37,37,-37xm603,-256v0,167,-92,268,-260,268v-167,0,-261,-102,-260,-268r0,-411r58,0r0,410v-1,133,71,217,202,217v131,0,203,-85,202,-217r0,-410r58,0r0,411","w":686},"\u00dd":{"d":"470,-872r-172,144r-44,0r154,-144r62,0xm338,0r-58,0r0,-285r-265,-382r69,0r225,328r225,-328r69,0r-265,382r0,285","w":618},"\u00de":{"d":"534,-347v0,111,-84,194,-201,194r-193,0r0,153r-57,0r0,-667r57,0r0,124r193,0v118,-4,201,85,201,196xm474,-347v0,-85,-61,-144,-147,-144r-187,0r0,286r187,0v85,2,147,-58,147,-142"},"\u00df":{"d":"255,-677v79,0,163,43,161,118v-3,91,-99,100,-142,153v-25,31,-20,75,15,96v69,40,184,36,237,96v20,22,31,49,31,83v-2,90,-75,143,-179,143v-92,0,-135,-30,-182,-77r31,-38v36,47,86,71,151,71v71,0,128,-37,128,-98v0,-88,-121,-90,-194,-114v-53,-17,-105,-50,-105,-118v0,-52,44,-91,78,-110v30,-17,76,-44,78,-83v1,-47,-59,-75,-108,-75v-68,0,-122,50,-122,121r0,509r-52,0r0,-509v-1,-97,74,-168,174,-168","w":578},"\u00e0":{"d":"264,-495v102,0,176,52,176,155r0,340r-52,0r0,-57v-42,46,-97,69,-164,69v-89,1,-169,-67,-169,-161v0,-96,78,-160,169,-160v68,0,123,23,164,69r0,-98v1,-70,-58,-112,-129,-111v-60,0,-111,24,-152,71r-29,-36v50,-54,112,-81,186,-81xm110,-148v0,71,58,119,132,119v63,0,112,-22,146,-66r0,-106v-34,-45,-83,-67,-146,-67v-74,0,-132,49,-132,120xm324,-556r-44,0r-172,-144r62,0","w":521},"\u00e1":{"d":"264,-495v102,0,176,52,176,155r0,340r-52,0r0,-57v-42,46,-97,69,-164,69v-89,1,-169,-67,-169,-161v0,-96,78,-160,169,-160v68,0,123,23,164,69r0,-98v1,-70,-58,-112,-129,-111v-60,0,-111,24,-152,71r-29,-36v50,-54,112,-81,186,-81xm110,-148v0,71,58,119,132,119v63,0,112,-22,146,-66r0,-106v-34,-45,-83,-67,-146,-67v-74,0,-132,49,-132,120xm420,-700r-172,144r-44,0r154,-144r62,0","w":521},"\u00e2":{"d":"264,-495v102,0,176,52,176,155r0,340r-52,0r0,-57v-42,46,-97,69,-164,69v-89,1,-169,-67,-169,-161v0,-96,78,-160,169,-160v68,0,123,23,164,69r0,-98v1,-70,-58,-112,-129,-111v-60,0,-111,24,-152,71r-29,-36v50,-54,112,-81,186,-81xm110,-148v0,71,58,119,132,119v63,0,112,-22,146,-66r0,-106v-34,-45,-83,-67,-146,-67v-74,0,-132,49,-132,120xm391,-556r-40,0r-86,-113r-84,113r-40,0r97,-144r54,0","w":521},"\u00e3":{"d":"264,-495v102,0,176,52,176,155r0,340r-52,0r0,-57v-42,46,-97,69,-164,69v-89,1,-169,-67,-169,-161v0,-96,78,-160,169,-160v68,0,123,23,164,69r0,-98v1,-70,-58,-112,-129,-111v-60,0,-111,24,-152,71r-29,-36v50,-54,112,-81,186,-81xm110,-148v0,71,58,119,132,119v63,0,112,-22,146,-66r0,-106v-34,-45,-83,-67,-146,-67v-74,0,-132,49,-132,120xm417,-688v1,70,-29,133,-93,134v-34,1,-59,-28,-70,-51v-9,-20,-29,-51,-55,-51v-41,0,-55,44,-54,96r-35,0v-1,-69,29,-134,93,-134v34,-1,60,28,71,51v9,20,28,51,54,51v41,0,55,-44,54,-96r35,0","w":521},"\u00e4":{"d":"264,-495v102,0,176,52,176,155r0,340r-52,0r0,-57v-42,46,-97,69,-164,69v-89,1,-169,-67,-169,-161v0,-96,78,-160,169,-160v68,0,123,23,164,69r0,-98v1,-70,-58,-112,-129,-111v-60,0,-111,24,-152,71r-29,-36v50,-54,112,-81,186,-81xm110,-148v0,71,58,119,132,119v63,0,112,-22,146,-66r0,-106v-34,-45,-83,-67,-146,-67v-74,0,-132,49,-132,120xm364,-638v19,0,37,18,37,37v0,19,-18,37,-37,37v-19,0,-37,-18,-37,-37v0,-19,18,-37,37,-37xm160,-638v19,0,37,18,37,37v0,19,-18,37,-37,37v-19,0,-37,-18,-37,-37v0,-19,18,-37,37,-37","w":521},"\u00e5":{"d":"264,-495v102,0,176,52,176,155r0,340r-52,0r0,-57v-42,46,-97,69,-164,69v-89,1,-169,-67,-169,-161v0,-96,78,-160,169,-160v68,0,123,23,164,69r0,-98v1,-70,-58,-112,-129,-111v-60,0,-111,24,-152,71r-29,-36v50,-54,112,-81,186,-81xm110,-148v0,71,58,119,132,119v63,0,112,-22,146,-66r0,-106v-34,-45,-83,-67,-146,-67v-74,0,-132,49,-132,120xm359,-646v0,50,-44,96,-95,96v-52,0,-96,-45,-96,-96v0,-52,44,-96,96,-96v51,0,95,45,95,96xm200,-646v0,34,30,64,64,64v34,0,63,-30,63,-64v0,-34,-29,-64,-63,-64v-34,0,-64,30,-64,64","w":521},"\u00e6":{"d":"618,-495v145,0,232,119,226,270r-404,0v4,106,78,192,189,192v63,0,115,-22,158,-67r27,34v-50,52,-113,78,-189,78v-86,0,-152,-35,-199,-106v-47,71,-113,106,-200,106v-90,1,-171,-66,-171,-161v0,-96,77,-161,169,-160v67,0,122,22,164,67r0,-96v1,-70,-58,-112,-129,-111v-60,0,-111,24,-152,71r-29,-36v50,-54,112,-81,186,-81v90,0,152,39,163,117v34,-64,97,-117,191,-117xm791,-266v0,-96,-71,-184,-176,-184v-102,0,-172,91,-175,184r351,0xm110,-148v0,71,58,119,132,119v73,0,127,-32,163,-97v-11,-21,-17,-46,-17,-74v-34,-45,-83,-68,-146,-68v-74,0,-132,49,-132,120","w":897},"\u00e7":{"d":"390,109v0,49,-49,79,-101,78v-42,0,-74,-10,-97,-29r17,-32v23,19,49,28,79,28v32,1,63,-16,65,-45v3,-47,-60,-50,-81,-22r-27,-16r21,-60v-125,-8,-212,-119,-212,-253v0,-139,96,-253,234,-253v71,0,128,27,171,82r-36,32v-33,-45,-77,-67,-132,-67v-112,-2,-182,93,-182,206v0,113,70,209,182,207v55,0,99,-23,132,-68r36,32v-41,52,-93,80,-156,83r-16,42v43,-29,103,1,103,55","w":494},"\u00e8":{"d":"110,-225v4,106,78,192,189,192v64,0,117,-22,158,-67r27,34v-50,52,-113,78,-189,78v-141,0,-241,-110,-241,-254v0,-135,99,-253,232,-253v146,0,234,118,228,270r-404,0xm461,-266v-2,-95,-70,-184,-176,-184v-102,0,-172,91,-175,184r351,0xm347,-556r-44,0r-172,-144r62,0","w":567},"\u00e9":{"d":"110,-225v4,106,78,192,189,192v64,0,117,-22,158,-67r27,34v-50,52,-113,78,-189,78v-141,0,-241,-110,-241,-254v0,-135,99,-253,232,-253v146,0,234,118,228,270r-404,0xm461,-266v-2,-95,-70,-184,-176,-184v-102,0,-172,91,-175,184r351,0xm444,-700r-172,144r-44,0r154,-144r62,0","w":567},"\u00ea":{"d":"110,-225v4,106,78,192,189,192v64,0,117,-22,158,-67r27,34v-50,52,-113,78,-189,78v-141,0,-241,-110,-241,-254v0,-135,99,-253,232,-253v146,0,234,118,228,270r-404,0xm461,-266v-2,-95,-70,-184,-176,-184v-102,0,-172,91,-175,184r351,0xm413,-556r-40,0r-86,-113r-84,113r-40,0r97,-144r54,0","w":567},"\u00eb":{"d":"110,-225v4,106,78,192,189,192v64,0,117,-22,158,-67r27,34v-50,52,-113,78,-189,78v-141,0,-241,-110,-241,-254v0,-135,99,-253,232,-253v146,0,234,118,228,270r-404,0xm461,-266v-2,-95,-70,-184,-176,-184v-102,0,-172,91,-175,184r351,0xm389,-638v19,0,37,18,37,37v0,19,-18,37,-37,37v-19,0,-37,-18,-37,-37v0,-19,18,-37,37,-37xm185,-638v19,0,37,18,37,37v0,19,-18,37,-37,37v-19,0,-37,-18,-37,-37v0,-19,18,-37,37,-37","w":567},"\u00ec":{"d":"166,-556r-44,0r-172,-144r62,0xm133,0r-52,0r0,-483r52,0r0,483","w":214},"\u00ed":{"d":"264,-700r-172,144r-44,0r154,-144r62,0xm133,0r-52,0r0,-483r52,0r0,483","w":214},"\u00ee":{"d":"232,-556r-40,0r-86,-113r-84,113r-40,0r97,-144r54,0xm133,0r-52,0r0,-483r52,0r0,483","w":214},"\u00ef":{"d":"209,-638v19,0,37,18,37,37v0,19,-18,37,-37,37v-19,0,-37,-18,-37,-37v0,-19,18,-37,37,-37xm5,-638v19,0,37,18,37,37v0,19,-18,37,-37,37v-19,0,-37,-18,-37,-37v0,-19,18,-37,37,-37xm133,0r-52,0r0,-483r52,0r0,483","w":214},"\u00f0":{"d":"54,-238v0,-136,90,-249,222,-249v64,0,116,29,157,87v-38,-63,-92,-120,-161,-172r-142,62r-14,-34r121,-53r-81,-53r30,-44v41,25,77,49,108,72r109,-48r14,33r-91,41v128,107,192,224,192,352v0,142,-92,256,-233,256v-137,0,-231,-111,-231,-250xm109,-238v0,108,68,203,176,203v109,0,177,-95,177,-203v0,-107,-68,-202,-177,-202v-108,0,-176,96,-176,202"},"\u00f1":{"d":"135,-410v34,-40,104,-85,174,-85v101,0,152,52,152,157r0,338r-52,0r0,-327v1,-85,-37,-120,-117,-121v-65,0,-130,42,-157,83r0,365r-52,0r0,-483r52,0r0,73xm424,-688v1,70,-29,133,-93,134v-34,1,-60,-28,-71,-51v-9,-20,-28,-51,-54,-51v-41,0,-55,44,-54,96r-35,0v-1,-69,29,-134,93,-134v34,-1,59,28,70,51v9,20,29,51,55,51v41,0,55,-44,54,-96r35,0","w":540},"\u00f2":{"d":"518,-242v0,139,-94,254,-233,254v-138,0,-231,-115,-231,-254v0,-139,93,-253,231,-253v139,0,233,114,233,253xm109,-242v0,108,68,207,176,207v110,0,177,-97,177,-207v0,-109,-68,-206,-177,-206v-108,0,-176,98,-176,206xm346,-556r-44,0r-172,-144r62,0"},"\u00f3":{"d":"518,-242v0,139,-94,254,-233,254v-138,0,-231,-115,-231,-254v0,-139,93,-253,231,-253v139,0,233,114,233,253xm109,-242v0,108,68,207,176,207v110,0,177,-97,177,-207v0,-109,-68,-206,-177,-206v-108,0,-176,98,-176,206xm443,-700r-172,144r-44,0r154,-144r62,0"},"\u00f4":{"d":"518,-242v0,139,-94,254,-233,254v-138,0,-231,-115,-231,-254v0,-139,93,-253,231,-253v139,0,233,114,233,253xm109,-242v0,108,68,207,176,207v110,0,177,-97,177,-207v0,-109,-68,-206,-177,-206v-108,0,-176,98,-176,206xm412,-556r-40,0r-86,-113r-84,113r-40,0r97,-144r54,0"},"\u00f5":{"d":"518,-242v0,139,-94,254,-233,254v-138,0,-231,-115,-231,-254v0,-139,93,-253,231,-253v139,0,233,114,233,253xm109,-242v0,108,68,207,176,207v110,0,177,-97,177,-207v0,-109,-68,-206,-177,-206v-108,0,-176,98,-176,206xm439,-688v1,70,-29,133,-93,134v-34,1,-59,-28,-70,-51v-9,-20,-29,-51,-55,-51v-41,0,-55,44,-54,96r-35,0v-1,-69,29,-134,93,-134v34,-1,60,28,71,51v9,20,28,51,54,51v41,0,55,-44,54,-96r35,0"},"\u00f6":{"d":"518,-242v0,139,-94,254,-233,254v-138,0,-231,-115,-231,-254v0,-139,93,-253,231,-253v139,0,233,114,233,253xm109,-242v0,108,68,207,176,207v110,0,177,-97,177,-207v0,-109,-68,-206,-177,-206v-108,0,-176,98,-176,206xm388,-638v19,0,37,18,37,37v0,19,-18,37,-37,37v-19,0,-37,-18,-37,-37v0,-19,18,-37,37,-37xm184,-638v19,0,37,18,37,37v0,19,-18,37,-37,37v-19,0,-37,-18,-37,-37v0,-19,18,-37,37,-37"},"\u00f7":{"d":"256,-570v21,0,39,18,39,39v0,21,-18,40,-39,40v-21,0,-40,-19,-40,-40v0,-21,18,-39,40,-39xm482,-316r-453,0r0,-42r453,0r0,42xm256,-178v21,0,39,18,39,39v0,21,-18,40,-39,40v-21,0,-40,-18,-40,-40v0,-21,19,-39,40,-39","w":511},"\u00f8":{"d":"518,-242v0,139,-94,254,-233,254v-55,0,-101,-16,-140,-47r-27,35r-44,0r45,-59v-43,-47,-65,-108,-65,-183v0,-139,93,-253,231,-253v52,0,97,14,135,43r24,-31r44,0r-41,53v47,49,71,111,71,188xm285,-35v110,0,178,-97,177,-207v0,-57,-16,-105,-48,-145r-238,312v30,27,66,40,109,40xm285,-448v-108,0,-177,98,-176,206v0,55,14,102,43,141r237,-311v-29,-24,-64,-36,-104,-36"},"\u00f9":{"d":"250,-35v65,1,129,-40,157,-80r0,-368r52,0r0,483r-52,0r0,-71v-38,42,-100,83,-174,83v-101,0,-152,-52,-152,-155r0,-340r52,0r0,328v-1,86,37,119,117,120xm332,-556r-44,0r-172,-144r62,0","w":540},"\u00fa":{"d":"250,-35v65,1,129,-40,157,-80r0,-368r52,0r0,483r-52,0r0,-71v-38,42,-100,83,-174,83v-101,0,-152,-52,-152,-155r0,-340r52,0r0,328v-1,86,37,119,117,120xm428,-700r-172,144r-44,0r154,-144r62,0","w":540},"\u00fb":{"d":"250,-35v65,1,129,-40,157,-80r0,-368r52,0r0,483r-52,0r0,-71v-38,42,-100,83,-174,83v-101,0,-152,-52,-152,-155r0,-340r52,0r0,328v-1,86,37,119,117,120xm395,-556r-40,0r-86,-113r-84,113r-40,0r97,-144r54,0","w":540},"\u00fc":{"d":"250,-35v65,1,129,-40,157,-80r0,-368r52,0r0,483r-52,0r0,-71v-38,42,-100,83,-174,83v-101,0,-152,-52,-152,-155r0,-340r52,0r0,328v-1,86,37,119,117,120xm376,-638v19,0,37,18,37,37v0,19,-18,37,-37,37v-19,0,-37,-18,-37,-37v0,-19,18,-37,37,-37xm172,-638v19,0,37,18,37,37v0,19,-18,37,-37,37v-19,0,-37,-18,-37,-37v0,-19,18,-37,37,-37","w":540},"\u00fd":{"d":"49,189r9,-48v25,11,64,12,84,-5v32,-27,49,-91,70,-132r-205,-487r58,0r176,422r174,-422r59,0r-250,589v-31,77,-91,104,-175,83xm398,-700r-172,144r-44,0r154,-144r62,0","w":481},"\u00fe":{"d":"517,-242v0,143,-81,254,-216,254v-69,0,-125,-30,-168,-90r0,262r-52,0r0,-851r52,0r0,260v32,-47,93,-88,168,-88v135,0,216,109,216,253xm133,-123v25,44,92,88,159,88v109,0,169,-94,169,-207v0,-113,-60,-206,-169,-206v-68,0,-133,42,-159,86r0,239","w":567},"\u00ff":{"d":"49,189r9,-48v25,11,64,12,84,-5v32,-27,49,-91,70,-132r-205,-487r58,0r176,422r174,-422r59,0r-250,589v-31,77,-91,104,-175,83xm343,-638v19,0,37,18,37,37v0,19,-18,37,-37,37v-19,0,-37,-18,-37,-37v0,-19,18,-37,37,-37xm139,-638v19,0,37,18,37,37v0,19,-18,37,-37,37v-19,0,-37,-18,-37,-37v0,-19,18,-37,37,-37","w":481},"\u0152":{"d":"379,-677v117,1,211,64,253,149r0,-139r423,0r0,52r-365,0r0,247r358,0r0,52r-358,0r0,264r365,0r0,52r-423,0r0,-139v-42,86,-136,149,-253,151v-190,4,-321,-153,-321,-345v0,-192,131,-348,321,-344xm383,-40v129,-2,213,-75,249,-181r0,-225v-36,-106,-120,-177,-249,-179v-161,-3,-265,128,-265,292v0,165,103,295,265,293","w":1115},"\u0153":{"d":"694,-495v146,0,234,118,228,270r-403,0v2,106,78,192,188,192v64,0,117,-22,158,-67r28,34v-51,52,-114,78,-189,78v-114,0,-187,-72,-214,-151v-33,81,-90,149,-205,151v-138,2,-231,-115,-231,-254v0,-139,93,-255,231,-253v113,2,174,69,205,151v26,-73,98,-151,204,-151xm869,-266v0,-96,-71,-184,-176,-184v-102,0,-172,91,-175,184r351,0xm285,-34v109,0,177,-98,177,-208v0,-109,-68,-206,-177,-206v-108,0,-176,97,-176,206v0,109,68,208,176,208","w":975},"\u0178":{"d":"415,-806v19,0,37,18,37,37v0,19,-18,37,-37,37v-19,0,-37,-18,-37,-37v0,-19,18,-37,37,-37xm211,-806v19,0,37,18,37,37v0,19,-18,37,-37,37v-19,0,-37,-18,-37,-37v0,-19,18,-37,37,-37xm338,0r-58,0r0,-285r-265,-382r69,0r225,328r225,-328r69,0r-265,382r0,285","w":618},"\u02c6":{"d":"250,-556r-40,0r-86,-113r-84,113r-40,0r97,-144r54,0","w":250},"\u02dc":{"d":"307,-688v1,70,-29,133,-93,134v-34,1,-59,-28,-70,-51v-9,-20,-29,-51,-55,-51v-41,0,-55,44,-54,96r-35,0v-1,-69,29,-134,93,-134v34,-1,60,28,71,51v9,20,28,51,54,51v41,0,55,-44,54,-96r35,0","w":307},"\u2013":{"d":"563,-218r-533,0r0,-48r533,0r0,48","w":593},"\u2014":{"d":"803,-218r-773,0r0,-48r773,0r0,48","w":833},"\u2018":{"d":"102,-477v-31,-1,-52,-29,-51,-64v1,-58,35,-111,72,-136r29,24v-27,17,-54,56,-58,93v25,-9,51,14,51,40v0,22,-20,44,-43,43","w":219},"\u2019":{"d":"108,-677v31,1,52,29,51,64v-1,58,-35,111,-72,136r-29,-24v27,-17,54,-56,58,-93v-25,9,-51,-14,-51,-40v0,-22,20,-44,43,-43","w":219},"\u201a":{"d":"108,-78v31,1,51,29,51,64v-1,57,-35,112,-72,136r-29,-24v27,-17,54,-56,58,-92v-30,6,-51,-14,-51,-41v-1,-22,20,-44,43,-43","w":219},"\u201c":{"d":"111,-477v-31,-1,-51,-29,-51,-64v0,-58,35,-111,71,-136r30,24v-27,18,-57,55,-59,93v26,-9,51,14,51,40v0,23,-19,44,-42,43xm252,-477v-62,-3,-58,-94,-30,-141v14,-24,30,-44,51,-59r30,24v-27,18,-57,55,-59,93v26,-9,51,14,51,40v0,23,-20,44,-43,43","w":361},"\u201d":{"d":"250,-677v62,3,58,94,30,141v-14,24,-30,44,-51,59r-30,-24v27,-18,57,-55,59,-93v-26,9,-51,-14,-51,-40v0,-23,20,-44,43,-43xm108,-677v31,1,52,29,51,64v-1,58,-35,111,-72,136r-29,-24v27,-17,54,-56,58,-93v-25,9,-51,-14,-51,-40v0,-22,20,-44,43,-43","w":361},"\u201e":{"d":"108,-78v31,1,51,29,51,64v-1,57,-35,112,-72,136r-29,-24v27,-17,54,-56,58,-92v-30,6,-51,-14,-51,-41v-1,-22,20,-44,43,-43xm250,-78v62,3,58,96,30,142v-14,24,-30,44,-51,58r-30,-24v27,-17,55,-56,59,-92v-29,6,-51,-14,-51,-41v-1,-23,20,-44,43,-43","w":361},"\u2022":{"d":"180,-345v56,0,103,47,103,103v0,55,-48,102,-103,102v-55,0,-103,-47,-103,-102v0,-56,47,-103,103,-103","w":358},"\u2026":{"d":"110,-78v23,0,44,21,44,43v0,23,-21,44,-44,44v-23,0,-44,-21,-44,-44v0,-22,21,-43,44,-43xm329,-78v23,0,44,21,44,43v0,23,-21,44,-44,44v-23,0,-44,-21,-44,-44v0,-22,21,-43,44,-43xm548,-78v23,0,44,21,44,43v0,23,-21,44,-44,44v-23,0,-44,-21,-44,-44v0,-22,21,-43,44,-43","w":657},"\u2039":{"d":"247,-63r-57,0r-160,-180r160,-177r57,0r-160,177","w":277},"\u203a":{"d":"247,-243r-160,180r-57,0r160,-180r-160,-177r57,0","w":277},"\u20ac":{"d":"417,-40v85,0,157,-44,195,-97r49,30v-65,79,-147,119,-244,119v-169,0,-297,-110,-328,-254r-54,0r0,-41r47,0v-4,-32,-4,-70,0,-102r-47,0r0,-41r55,0v32,-142,160,-252,327,-252v100,0,181,39,243,118r-48,31v-38,-53,-109,-97,-195,-97v-134,0,-237,89,-266,200r326,0r0,41r-334,0v-5,30,-5,70,-1,102r335,0r0,41r-326,0v29,113,131,202,266,202","w":690},"\u2122":{"d":"419,-447r-28,0r0,-182r-75,182r-8,0r-75,-182r0,182r-28,0r0,-220r43,0r64,160r64,-160r43,0r0,220xm169,-641r-62,0r0,194r-28,0r0,-194r-62,0r0,-26r152,0r0,26","w":454}}});
